{
  "fc_weight_shape": [
    13,
    512
  ],
  "fc_bias_shape": [
    13
  ],
  "end_token_weight_first_20": [
    0.07151610404253006,
    0.027574701234698296,
    0.04252413660287857,
    0.055316030979156494,
    0.16604210436344147,
    0.07318386435508728,
    0.06681112945079803,
    0.06621234863996506,
    -0.11501581966876984,
    -0.3951159715652466,
    -0.13689248263835907,
    0.14244313538074493,
    -0.05455080047249794,
    -0.13423097133636475,
    0.15922296047210693,
    -0.023325635120272636,
    0.10936331748962402,
    -0.08815207332372665,
    -0.1765911728143692,
    -0.3408001661300659
  ],
  "end_token_bias": -1.257874846458435,
  "all_biases": [
    -6.695371150970459,
    -6.679508209228516,
    -6.683565139770508,
    -0.8905832171440125,
    -0.0776805579662323,
    0.7646461129188538,
    -0.4816957116127014,
    -1.2024351358413696,
    -3.1201210021972656,
    -0.146280899643898,
    -1.257874846458435,
    -3.066012144088745,
    -2.7301442623138428
  ]
}